2
20
5
3
-1.1492
2.74953
1.54069
3.25388
-2.30056
-2.08108
0.897926
-0.223419
1.66237
-2.00629
0.135878
1.45073
-0.616267
-0.0911016
0.362169
-1.68482
-1.04811
2.60782
2.41122
-0.195976
-1.77823
2.38599
0.402208
-1.16816
0.260282
-1.84918
-1.61447
-2.0934
1.17966
-0.75376
-2.46692
0.735524
-1.32206
-2.11454
-2.31531
-0.58144
-1.7194
-0.497743
-0.685393
1.8214
-2.03079
1.0649
0.762703
-0.583491
2.06726
1.83034
1.9663
0.618717
0.739468
-3.05421
0.687584
-1.51034
-0.500029
0.574424
-0.51193
-1.21573
-1.72938
1.9729
-0.821532
-2.03205
-0.573189
3.41978
-0.502444
0.547089
0.586812
-2.96351
1.74828
0.797147
-1.68036
2.41562
1.37034
0.786281
-0.813858
0.785654
0.969975
-2.11625
2.81518
1.2172
-1.5695
0.6965
1.63688
-1.51341
-0.553882
-0.385499
-1.93498
-1.1599
1.35259
-1.33728
1.01754
2.38757
0.221774
3.17413
-1.19577
0.972634
1.96687
0.909447
-1.33763
1.0371
0.485001
-0.964038
-0.549012
2.45558
0.107399
1.06117
0.747845
-1.41126
2.93719
0.735009
-0.975621
0.723631
0.691983
3.24243
1.49952
0.0729146
0.722196
-0.300379
2.72921
1.27301
-0.193148
1.1219
-2.36503
2.7959
-0.177432
-0.358729
1.65203
1.05492
-1.22407
0.273288
1.13751
-1.02696
0.376528
-1.52767
0.334794
0.979439
0.548259
0.541581
-0.413786
0.568527
0.172067
-0.899414
2.35621
4.54885
2.29795
-8.05364
-1.6955
7.88853
1.73169
-0.223424
-4.37642
-0.0981085
2.36578
-1.92605
-2.11417
-4.38341
-6.57753
