-2.95831
0.287643
1.31996
0.544461
1.18859
-1.87969
1.39929
2.16906
0.616863
1.17406
2.20986
0.841807
0.826516
-1.04163
2.1442
1.46166
-2.04883
-0.717023
1.3966
-0.609038
0.580068
-2.51152
0.662428
1.30917
0.290993
-0.244292
1.1105
2.3713
-2.91192
-0.0571005
2.28563
0.976251
1.11908
-0.965204
2.0147
1.03278
-0.0256433
-1.32375
1.31123
-1.50773
3.92666
0.379752
0.703034
-4.02561
1.01744
3.60962
1.27903
1.33866
-3.42295
0.581412
-0.418302
1.07807
0.632119
0.538251
0.673464
-1.35101
1.4614
0.895403
0.218614
0.695808
-0.464991
1.3176
0.295068
0.229977
1.37104
3.55112
1.46781
0.407693
-3.36353
0.644129
-0.782792
0.838628
1.07612
1.20122
0.154084
0.721155
0.730618
0.857614
2.2336
0.324245
4.07314
1.06216
0.974424
-2.36769
0.420571
-0.610694
1.34711
0.666379
-0.690538
1.33194
0.25333
1.38938
0.491053
2.86408
0.173157
-1.24579
0.3627
0.311645
0.204864
0.492744
-1.32723
1.36186
0.772535
0.617565
1.30579
2.88758
1.117
0.193931
-2.31971
1.24478
0.187552
0.690399
1.00106
2.32518
0.873575
-1.13108
0.690035
1.30202
1.55397
0.110454
4.00524
1.34312
0.13777
-1.68598
0.447363
3.63921
1.02896
1.15349
-3.05455
1.02133
-1.09465
0.204164
0.755457
2.08232
0.155838
2.71796
1.03668
0.63817
-3.28449
1.54009
-10.1895
-1.57364
9.74426
-8.96802
-1.48838
-5.0516
-8.31385
-1.45472
-4.0551
31.2059
11.1956
9.47034
-8.77442
-0.853319
-5.16017
