1.94911
0.850908
0.503749
1.33593
0.140057
-4.47941
1.26921
0.396881
0.485366
-0.393159
0.0830585
0.420792
5.1127
3.4754
2.55784
0.22327
1.03867
0.767711
3.01028
4.31015
1.50796
-0.330267
1.8129
0.524606
-0.195254
-4.34474
0.0864062
0.199573
0.565852
1.50321
0.418435
-0.552559
4.85236
3.406
2.43983
0.131811
0.599598
1.37891
2.86567
3.85188
-0.103319
1.18744
-0.854395
2.58162
2.0251
6.50973
-0.0690207
0.918596
0.771852
0.665827
0.833627
2.18001
-2.27301
-1.23693
-1.11772
1.78235
1.67366
-0.630913
-4.16098
-1.88031
0.398097
0.488326
0.706999
-0.738787
-0.283258
-2.02476
1.01558
0.761725
-0.876188
-1.66292
-1.45701
-1.67507
-2.24688
-0.623486
-1.90993
-6.60764
-0.9249
6.87106
0.783224
-0.152461
-1.03371
-0.950514
0.102879
-1.10728
-0.197776
-0.0221312
-1.12602
-0.0164584
-0.468374
-1.19162
-0.369359
-0.853826
-1.32697
-2.37744
-0.845502
-2.05867
3.53697
2.9633
5.76064
0.31187
1.51062
3.26868
1.93613
1.62734
1.26953
-1.03282
-0.86457
-1.83712
-1.26844
-0.0801345
-1.02324
0.578693
1.02006
-0.722356
3.82189
0.872763
-4.07304
3.37537
2.60797
3.67148
